solver_type L2R_LR_DUAL
nr_class 2
label 1 -1
nr_feature 128
bias -1
w
-9.833986104291688 
-7.280438778207656 
-2.673803567693536 
-2.187508057766618 
-8.54762158415541 
-7.316666890249851 
-4.620881345962054 
-8.367517686445556 
-5.570514624293011 
-4.374534940657 
0.1827349747301381 
2.084628454078944 
-3.584822197848794 
-1.630047263480639 
-0.8613102321428132 
-0.08796733926381375 
2.38945002935008 
-3.378268882669315 
2.769649120209274 
-2.862049809727615 
5.647668217416434 
-0.1174281733573876 
-3.381071352683207 
-9.829943990872186 
-3.716578201080213 
-7.952341749347626 
-0.9778181540648272 
-3.892642814195849 
-0.04186422837718218 
-5.624213781491536 
-6.236087237097235 
-6.373093343297755 
-13.4354142031764 
-9.995827587291023 
-7.415862341001797 
-4.185815982202486 
-9.489472360944802 
-6.803657398158656 
-1.404315550309247 
-2.514775270090889 
10.26501022228168 
2.496901363600758 
-3.077818038135239 
-1.445488696609782 
-6.427654910176436 
-1.440916874742801 
2.393651325293152 
0.9114476227269617 
-6.072777508932778 
-2.478129422884215 
5.758616894810591 
7.816351922747528 
-1.676635535037637 
5.79994093795436 
-1.105379272057376 
1.904689794128881 
0.3806656558186837 
1.00708175978259 
4.62754552298144 
-4.736731743960397 
-0.3487176043729805 
1.226324185780407 
-0.6243882265560075 
-4.304004314418987 
-8.240929698999185 
-6.891933681319247 
-1.559844395316897 
-4.614498706368178 
-8.558969356081018 
-4.370218340362866 
-0.7078003738843092 
-9.766439975195413 
1.457760395294691 
-4.091288318441853 
2.38945270281877 
-1.138326979619444 
-9.060219864301377 
-2.852747963469718 
-2.617352559279545 
1.461404167325952 
-3.813008690988795 
-1.913969023028954 
2.803698231524455 
3.948308754315327 
9.338660789069809 
5.613579573746271 
2.104310265971695 
-4.124472996622944 
2.542553297044834 
-1.629334064264588 
0.8753715147033053 
-2.934738417511708 
-0.2820645828183547 
1.671035942550408 
5.337584436322659 
-4.040183585079894 
-10.25906199736632 
-8.184730342183888 
1.022873184820214 
-6.96066627438644 
-7.633427480391374 
-5.533411385034635 
-3.847728773944307 
-8.780282982856946 
-1.587347453084047 
-0.4207842578799648 
0.3925438739133136 
-4.310046298757677 
-7.740564447656205 
3.098736187206023 
-3.059474921203644 
-5.171977788744616 
-0.8934019034367042 
-6.276447138812766 
5.18724181911373 
3.885697177379007 
2.579759175850773 
-1.455678941354189 
-0.7645827091045316 
-3.000529196474492 
-3.912750180533227 
-5.700637680163289 
-4.281006737363447 
-5.190015204565023 
-5.209876825774673 
-2.452626873848065 
-0.3451243256542849 
-4.570169546378902 
