solver_type L2R_LR_DUAL
nr_class 2
label 1 -1
nr_feature 128
bias -1
w
-3.610890161454236 
2.50151099758807 
-1.616068650424906 
-1.587611811408566 
-2.804743449145301 
-8.153509969571594 
-2.002684285346508 
0.9835799699995055 
-1.680816530832055 
2.755171522823586 
1.806781390547676 
-2.89066993033968 
0.5841170451866815 
-6.263847687256544 
-0.7306209660885512 
-2.179217755016587 
-1.046541582355658 
-0.3756739782308497 
-0.5613907535847177 
1.185746991259298 
6.722633042731271 
-3.836643448037381 
0.4152073290313638 
3.049377940521311 
-3.893006519487311 
0.6397675129978996 
-2.479819268759776 
-1.891730749684311 
-1.052171896787799 
0.2128934322917264 
-7.229418147756626 
-1.452467887542312 
-0.7304676468274311 
2.980111639810294 
-5.325714108889914 
-0.683025181532166 
-4.374003457919727 
2.908968737667308 
-1.06792316375398 
-2.122810923212008 
2.292800103817619 
2.568582101082591 
-0.217079651016419 
2.148024397502808 
-2.599481996315114 
1.279209498331962 
0.8252670939006291 
-0.2633636095512578 
0.4641744418169095 
2.631230770320163 
0.2573939908121453 
0.3593292732104999 
-2.152286338357279 
2.376711310188943 
0.8050512430119012 
-3.523642061663145 
-6.477659494616929 
-3.583974266749435 
-1.487886228554428 
2.327516791819321 
0.08995570694018254 
-0.2701994415751482 
-2.236400852640531 
3.742835663321069 
-3.53675191450487 
1.18524842790275 
-3.634637742480897 
3.359991857419738 
-2.018589892654075 
-0.5677616069762104 
-2.08460570492332 
2.011071005923935 
1.424404665237406 
1.808643338144765 
1.66136294644555 
3.722484476302328 
-0.09765248299531286 
2.462811567117764 
3.543139202077746 
-2.726149180928539 
-0.3507331623079887 
-1.236652887880401 
-0.6315260198379437 
-0.03300263442523956 
1.740406352734263 
1.437415954436916 
0.3876717022028195 
3.227660263015685 
-6.369710975049415 
1.54994058620144 
0.7656724635289928 
-2.410741587642073 
2.629977818864949 
0.8545094425396653 
-2.173077689149794 
1.206917026535785 
-1.285479834801991 
-1.344064504896336 
-1.757002202452007 
-1.882920531650665 
-3.232494757444884 
-2.002526645030282 
0.975973501922382 
-1.30528679680954 
-0.6520622434891455 
-1.581306585943101 
-0.4879784223287386 
0.05310809427477448 
-4.481159855931392 
-4.56532524341329 
2.505213693907868 
-0.0141817458177789 
-1.268810203642465 
2.724606354982751 
-3.97352054740516 
-0.02162687261561387 
1.880830924573317 
1.761110282617615 
0.2159138070622078 
-2.478497710475295 
-2.210289805848187 
-5.590759909443769 
-3.217926549376859 
0.273557237687067 
0.1187564562746304 
-0.8902454401315263 
0.05638386089250692 
-3.317847345234855 
